{
    "name": "Ulmost",
    "description": "Starting planets vary depending on army count! Best suited for 1v1 or FFA.",
    "creator": "WPMarshall",
    "version": "1.2.0",
    "players":[2, 6],
    "planets": [
        {
            "name": "Ulmost Hot",
            "mass": 10000,
            "position_x": 20000,
            "position_y": 0.00039743020897731185,
            "velocity_x": 0.000028805608963011764,
            "velocity_y": 298.02593994140625,
            "required_thrust_to_move": 2,
            "starting_planet": true,
            "respawn": false,
            "start_destroyed": false,
            "min_spawn_delay": 0,
            "max_spawn_delay": 0,
            "planet": {
                "seed": 758017280,
                "radius": 250,
                "heightRange": 0,
                "waterHeight": 40,
                "waterDepth": 100,
                "temperature": 0,
                "metalDensity": 0,
                "metalClusters": 0,
                "metalSpotLimit": -1,
                "biomeScale": 50,
                "biome": "earth",
                "symmetryType": "terrain and CSG",
                "symmetricalMetal": true,
                "symmetricalStarts": false,
                "numArmies": 2,
                "landingZonesPerArmy": 0,
                "landingZoneSize": 100,
                "heightAdjustments": []
            },
            "planetCSG": [
                {
                    "proj": "BP_Bend",
                    "spec": "/pa/terrain/ice/brushes/ice_cliff_08.json",
                    "height": 251.0862579345703,
                    "op": "BO_Add",
                    "position": [
                        -137.0426025390625,
                        152.15313720703125,
                        185.34390258789062
                    ],
                    "transform": [
                        1.199666142463684,
                        0.011437729001045227,
                        -0.6856314539909363,
                        -124.58419036865234,
                        0.4248354136943817,
                        1.0721303224563599,
                        0.7612302303314209,
                        138.32102966308594,
                        0.5382715463638306,
                        -0.8716799020767212,
                        0.9272853136062622,
                        168.49444580078125
                    ],
                    "scale": [
                        1.3818176984786987,
                        1.3818176984786987,
                        1.3818176984786987
                    ],
                    "rotation": 0.17999997735023499,
                    "weight": [
                        0,
                        0,
                        0,
                        0
                    ],
                    "weightHard": false,
                    "weightScale": [
                        1,
                        1,
                        1
                    ],
                    "mirrored": false,
                    "twinId": 0,
                    "pathable": false,
                    "flooded": false,
                    "mergeable": false,
                    "no_features": false
                },
                {
                    "proj": "BP_Bend",
                    "spec": "/pa/terrain/ice/brushes/ice_cliff_08.json",
                    "height": 251.0862579345703,
                    "op": "BO_Add",
                    "position": [
                        -137.0426025390625,
                        152.15313720703125,
                        185.34390258789062
                    ],
                    "transform": [
                        1.199666142463684,
                        0.011437729001045227,
                        -0.6856314539909363,
                        -124.58419799804688,
                        0.4248354136943817,
                        1.0721303224563599,
                        0.7612302303314209,
                        138.32102966308594,
                        -0.5382715463638306,
                        0.8716799020767212,
                        -0.9272853136062622,
                        -168.4944610595703
                    ],
                    "scale": [
                        1.3818176984786987,
                        1.3818176984786987,
                        1.3818176984786987
                    ],
                    "rotation": 0.17999997735023499,
                    "weight": [
                        0,
                        0,
                        0,
                        0
                    ],
                    "weightHard": false,
                    "weightScale": [
                        1,
                        1,
                        1
                    ],
                    "mirrored": true,
                    "twinId": 0,
                    "pathable": false,
                    "flooded": false,
                    "mergeable": false,
                    "no_features": false
                },
                {
                    "proj": "BP_Bend",
                    "spec": "/pa/terrain/ice/brushes/ice_cliff_11.json",
                    "height": 253.2052459716797,
                    "op": "BO_Add",
                    "position": [
                        138.07034301757812,
                        -69.75811767578125,
                        199.19305419921875
                    ],
                    "transform": [
                        1.248823642730713,
                        0.12690311670303345,
                        0.8211783170700073,
                        138.61781311035156,
                        0.12690311670303345,
                        1.4358835220336914,
                        -0.4148888885974884,
                        -70.03471374511719,
                        -0.8211783170700073,
                        0.4148888885974884,
                        1.184707522392273,
                        199.98284912109375
                    ],
                    "scale": [
                        1.4999995231628418,
                        1.4999995231628418,
                        1.4999995231628418
                    ],
                    "rotation": 0,
                    "weight": [
                        0,
                        0,
                        0,
                        0
                    ],
                    "weightHard": false,
                    "weightScale": [
                        1,
                        1,
                        1
                    ],
                    "mirrored": false,
                    "twinId": 0,
                    "pathable": false,
                    "flooded": false,
                    "mergeable": false,
                    "no_features": false
                },
                {
                    "proj": "BP_Bend",
                    "spec": "/pa/terrain/ice/brushes/ice_cliff_11.json",
                    "height": 253.2052459716797,
                    "op": "BO_Add",
                    "position": [
                        138.07034301757812,
                        -69.75811767578125,
                        199.19305419921875
                    ],
                    "transform": [
                        1.248823642730713,
                        0.12690311670303345,
                        0.8211783170700073,
                        138.6177978515625,
                        0.12690311670303345,
                        1.4358835220336914,
                        -0.4148888885974884,
                        -70.03470611572266,
                        0.8211783170700073,
                        -0.4148888885974884,
                        -1.184707522392273,
                        -199.98284912109375
                    ],
                    "scale": [
                        1.4999995231628418,
                        1.4999995231628418,
                        1.4999995231628418
                    ],
                    "rotation": 0,
                    "weight": [
                        0,
                        0,
                        0,
                        0
                    ],
                    "weightHard": false,
                    "weightScale": [
                        1,
                        1,
                        1
                    ],
                    "mirrored": true,
                    "twinId": 0,
                    "pathable": false,
                    "flooded": false,
                    "mergeable": false,
                    "no_features": false
                },
                {
                    "proj": "BP_Bend",
                    "spec": "/pa/terrain/ice/brushes/ice_cliff_05.json",
                    "height": 252.1820831298828,
                    "op": "BO_Add",
                    "position": [
                        142.38693237304688,
                        -65.66924285888672,
                        197.50775146484375
                    ],
                    "transform": [
                        0.9197690486907959,
                        0.09234701097011566,
                        1.2873320579528809,
                        142.38694763183594,
                        0.09234701097011566,
                        1.0774091482162476,
                        -0.5937209725379944,
                        -65.66924285888672,
                        -0.6323738694190979,
                        0.29165253043174744,
                        1.7856836318969727,
                        197.50775146484375
                    ],
                    "scale": [
                        1.119999885559082,
                        1.119999885559082,
                        2.279998779296875
                    ],
                    "rotation": 0,
                    "weight": [
                        0,
                        0,
                        0,
                        0
                    ],
                    "weightHard": false,
                    "weightScale": [
                        1,
                        1,
                        1
                    ],
                    "mirrored": false,
                    "twinId": 0,
                    "pathable": false,
                    "flooded": false,
                    "mergeable": false,
                    "no_features": false
                },
                {
                    "proj": "BP_Bend",
                    "spec": "/pa/terrain/ice/brushes/ice_cliff_05.json",
                    "height": 252.1820831298828,
                    "op": "BO_Add",
                    "position": [
                        142.38693237304688,
                        -65.66924285888672,
                        197.50775146484375
                    ],
                    "transform": [
                        0.9197690486907959,
                        0.09234701097011566,
                        1.2873320579528809,
                        142.386962890625,
                        0.09234701097011566,
                        1.0774091482162476,
                        -0.5937209725379944,
                        -65.66924285888672,
                        0.6323738694190979,
                        -0.29165253043174744,
                        -1.7856836318969727,
                        -197.5077667236328
                    ],
                    "scale": [
                        1.119999885559082,
                        1.119999885559082,
                        2.279998779296875
                    ],
                    "rotation": 0,
                    "weight": [
                        0,
                        0,
                        0,
                        0
                    ],
                    "weightHard": false,
                    "weightScale": [
                        1,
                        1,
                        1
                    ],
                    "mirrored": true,
                    "twinId": 0,
                    "pathable": false,
                    "flooded": false,
                    "mergeable": false,
                    "no_features": false
                },
                {
                    "proj": "BP_Bend",
                    "spec": "/pa/terrain/ice/brushes/ice_cliff_04.json",
                    "height": 250.69052124023438,
                    "op": "BO_Add",
                    "position": [
                        -84.8779296875,
                        -205.89910888671875,
                        115.09574890136719
                    ],
                    "transform": [
                        1.29000985622406,
                        -0.2668159604072571,
                        -0.4740070104598999,
                        -84.87792205810547,
                        -0.2668159604072571,
                        0.7527505159378052,
                        -1.1498584747314453,
                        -205.89907836914062,
                        0.4740070104598999,
                        1.1498584747314453,
                        0.642760694026947,
                        115.09575653076172
                    ],
                    "scale": [
                        1.3999996185302734,
                        1.3999996185302734,
                        1.3999996185302734
                    ],
                    "rotation": 0,
                    "weight": [
                        0,
                        0,
                        0,
                        0
                    ],
                    "weightHard": false,
                    "weightScale": [
                        1,
                        1,
                        1
                    ],
                    "mirrored": false,
                    "twinId": 0,
                    "pathable": false,
                    "flooded": false,
                    "mergeable": false,
                    "no_features": false
                },
                {
                    "proj": "BP_Bend",
                    "spec": "/pa/terrain/ice/brushes/ice_cliff_04.json",
                    "height": 250.69052124023438,
                    "op": "BO_Add",
                    "position": [
                        -84.8779296875,
                        -205.89910888671875,
                        115.09574890136719
                    ],
                    "transform": [
                        1.29000985622406,
                        -0.2668159604072571,
                        -0.4740070104598999,
                        -84.87792205810547,
                        -0.2668159604072571,
                        0.7527505159378052,
                        -1.1498584747314453,
                        -205.89906311035156,
                        -0.4740070104598999,
                        -1.1498584747314453,
                        -0.642760694026947,
                        -115.09574890136719
                    ],
                    "scale": [
                        1.3999996185302734,
                        1.3999996185302734,
                        1.3999996185302734
                    ],
                    "rotation": 0,
                    "weight": [
                        0,
                        0,
                        0,
                        0
                    ],
                    "weightHard": false,
                    "weightScale": [
                        1,
                        1,
                        1
                    ],
                    "mirrored": true,
                    "twinId": 0,
                    "pathable": false,
                    "flooded": false,
                    "mergeable": false,
                    "no_features": false
                },
                {
                    "proj": "BP_Bend",
                    "spec": "/pa/terrain/ice/brushes/ice_crack_01.json",
                    "height": 252.36712646484375,
                    "op": "BO_Subtract",
                    "position": [
                        143.81216430664062,
                        207.27273559570312,
                        6.726020812988281
                    ],
                    "transform": [
                        0.26131415367126465,
                        0.029367998242378235,
                        0.1823531836271286,
                        143.81216430664062,
                        -0.18227612972259521,
                        -0.010041311383247375,
                        0.26282086968421936,
                        207.27272033691406,
                        0.029842421412467957,
                        -0.3184916377067566,
                        0.008528566919267178,
                        6.726023197174072
                    ],
                    "scale": [
                        0.32000038027763367,
                        0.32000038027763367,
                        0.32000038027763367
                    ],
                    "rotation": -0.6999998688697815,
                    "weight": [
                        0,
                        0,
                        0,
                        0
                    ],
                    "weightHard": false,
                    "weightScale": [
                        1,
                        1,
                        1
                    ],
                    "mirrored": false,
                    "twinId": 0,
                    "pathable": false,
                    "flooded": false,
                    "mergeable": false,
                    "no_features": true
                }
            ],
            "metal_spots": [
                [
                    -101.82300567626953,
                    227.35418701171875,
                    36.69529342651367
                ],
                [
                    -101.82300567626953,
                    227.35418701171875,
                    -36.69529342651367
                ],
                [
                    -43.27162170410156,
                    246.3917694091797,
                    27.387916564941406
                ],
                [
                    -43.27162170410156,
                    246.3917694091797,
                    -27.387916564941406
                ],
                [
                    -216.56199645996094,
                    117.43328094482422,
                    50.58218002319336
                ],
                [
                    -216.56199645996094,
                    117.43328094482422,
                    -50.58218002319336
                ],
                [
                    68.64507293701172,
                    117.796630859375,
                    210.53443908691406
                ],
                [
                    68.64507293701172,
                    117.796630859375,
                    -210.53443908691406
                ],
                [
                    225.3983154296875,
                    45.23530578613281,
                    106.86257934570312
                ],
                [
                    225.3983154296875,
                    45.23530578613281,
                    -106.86257934570312
                ],
                [
                    159.3443603515625,
                    -184.74163818359375,
                    68.95591735839844
                ],
                [
                    159.3443603515625,
                    -184.74163818359375,
                    -68.95591735839844
                ],
                [
                    -208.5189208984375,
                    -55.06068420410156,
                    128.01467895507812
                ],
                [
                    -208.5189208984375,
                    -55.06068420410156,
                    -128.01467895507812
                ],
                [
                    -20.813045501708984,
                    -122.4195556640625,
                    219.31610107421875
                ],
                [
                    -20.813045501708984,
                    -122.4195556640625,
                    -219.31610107421875
                ],
                [
                    20.42336082458496,
                    250.9132080078125,
                    1.978128433227539
                ]
            ],
            "landing_zones": {
                "list": [
                    [
                        -75.68423461914062,
                        240.18032836914062,
                        -0.06699302047491074
                    ]
                ],
                "rules": [
                    {
                        "min": 2,
                        "max": 2
                    }
                ]
            }
        },
        {
            "name": "Ulmost Cold",
            "mass": 10000,
            "position_x": 30000,
            "position_y": -0.00003968365490436554,
            "velocity_x": 0.000028805608963011764,
            "velocity_y": -15.183242797851562,
            "required_thrust_to_move": 2,
            "starting_planet": true,
            "respawn": false,
            "start_destroyed": false,
            "min_spawn_delay": 0,
            "max_spawn_delay": 0,
            "planet": {
                "seed": 758017280,
                "radius": 250,
                "heightRange": 0,
                "waterHeight": 40,
                "waterDepth": 100,
                "temperature": 0,
                "metalDensity": 0,
                "metalClusters": 0,
                "metalSpotLimit": -1,
                "biomeScale": 50,
                "biome": "lava",
                "symmetryType": "terrain and CSG",
                "symmetricalMetal": true,
                "symmetricalStarts": false,
                "numArmies": 2,
                "landingZonesPerArmy": 0,
                "landingZoneSize": 100,
                "heightAdjustments": []
            },
            "planetCSG": [
                {
                    "spec": "/pa/terrain/lava/brushes/lava_plateau_06.json",
                    "proj": "BP_Bend",
                    "op": "BO_Add",
                    "position": [
                        -112.6951904296875,
                        147.05941772460938,
                        170.29391479492188
                    ],
                    "height": 258.64794921875,
                    "transform": [
                        0.6370535492897034,
                        -0.09272389113903046,
                        -1.0837451219558716,
                        -115.83000183105469,
                        0.2870319187641144,
                        0.5088968276977539,
                        1.4142123460769653,
                        151.15013122558594,
                        0.17371214926242828,
                        -0.5008260011672974,
                        1.6376488208770752,
                        175.0308837890625
                    ],
                    "scale": [
                        0.7200002670288086,
                        0.7200002670288086,
                        2.4199986457824707
                    ],
                    "rotation": 0.3199999928474426,
                    "weight": [
                        0,
                        0,
                        0,
                        0
                    ],
                    "weightHard": false,
                    "weightScale": [
                        1,
                        1,
                        1
                    ],
                    "mirrored": false,
                    "twinId": 0,
                    "flooded": false,
                    "pathable": false,
                    "mergeable": false,
                    "no_features": false
                },
                {
                    "spec": "/pa/terrain/lava/brushes/lava_plateau_06.json",
                    "proj": "BP_Bend",
                    "op": "BO_Add",
                    "position": [
                        -112.6951904296875,
                        147.05941772460938,
                        170.29391479492188
                    ],
                    "height": 258.64794921875,
                    "transform": [
                        0.6370535492897034,
                        -0.09272389113903046,
                        -1.0837451219558716,
                        -115.83000946044922,
                        0.2870319187641144,
                        0.5088968276977539,
                        1.4142123460769653,
                        151.15013122558594,
                        -0.17371214926242828,
                        0.5008260011672974,
                        -1.6376488208770752,
                        -175.0308837890625
                    ],
                    "scale": [
                        0.7200002670288086,
                        0.7200002670288086,
                        2.4199986457824707
                    ],
                    "rotation": 0.3199999928474426,
                    "weight": [
                        0,
                        0,
                        0,
                        0
                    ],
                    "weightHard": false,
                    "weightScale": [
                        1,
                        1,
                        1
                    ],
                    "mirrored": true,
                    "twinId": 0,
                    "flooded": false,
                    "pathable": false,
                    "mergeable": false,
                    "no_features": false
                },
                {
                    "spec": "/pa/terrain/lava/brushes/lava_plateau_09.json",
                    "proj": "BP_Bend",
                    "op": "BO_Add",
                    "position": [
                        -84.27946472167969,
                        -206.95425415039062,
                        113.68856048583984
                    ],
                    "height": 246.71533203125,
                    "transform": [
                        0.46941566467285156,
                        0.9129580855369568,
                        -0.3563253581523895,
                        -82.93484497070312,
                        -0.6135758757591248,
                        -0.04562513530254364,
                        -0.8749824166297913,
                        -203.65243530273438,
                        -0.7689431309700012,
                        0.5937387943267822,
                        0.48066407442092896,
                        111.87471771240234
                    ],
                    "scale": [
                        1.0899999141693115,
                        1.0899999141693115,
                        1.059999942779541
                    ],
                    "rotation": -1.299999475479126,
                    "weight": [
                        0,
                        0,
                        0,
                        0
                    ],
                    "weightHard": false,
                    "weightScale": [
                        1,
                        1,
                        1
                    ],
                    "mirrored": false,
                    "twinId": 0,
                    "flooded": false,
                    "pathable": false,
                    "mergeable": false,
                    "no_features": false
                },
                {
                    "spec": "/pa/terrain/lava/brushes/lava_plateau_09.json",
                    "proj": "BP_Bend",
                    "op": "BO_Add",
                    "position": [
                        -84.27946472167969,
                        -206.95425415039062,
                        113.68856048583984
                    ],
                    "height": 246.71533203125,
                    "transform": [
                        0.46941566467285156,
                        0.9129580855369568,
                        -0.3563253581523895,
                        -82.93485260009766,
                        -0.6135758757591248,
                        -0.04562513530254364,
                        -0.8749824166297913,
                        -203.65245056152344,
                        0.7689431309700012,
                        -0.5937387943267822,
                        -0.48066407442092896,
                        -111.87472534179688
                    ],
                    "scale": [
                        1.0899999141693115,
                        1.0899999141693115,
                        1.059999942779541
                    ],
                    "rotation": -1.299999475479126,
                    "weight": [
                        0,
                        0,
                        0,
                        0
                    ],
                    "weightHard": false,
                    "weightScale": [
                        1,
                        1,
                        1
                    ],
                    "mirrored": true,
                    "twinId": 0,
                    "flooded": false,
                    "pathable": false,
                    "mergeable": false,
                    "no_features": false
                },
                {
                    "spec": "/pa/terrain/lava/brushes/lava_crack_01.json",
                    "proj": "BP_Bend",
                    "op": "BO_Subtract",
                    "position": [
                        141.51104736328125,
                        208.8038330078125,
                        1.6108474731445312
                    ],
                    "height": 252.2439422607422,
                    "transform": [
                        0.000604778528213501,
                        0.2897329330444336,
                        0.19635312259197235,
                        141.51104736328125,
                        -0.0031098350882530212,
                        -0.19634120166301727,
                        0.28972500562667847,
                        208.80384826660156,
                        0.349985808134079,
                        -0.0022452622652053833,
                        0.0022350738290697336,
                        1.6108102798461914
                    ],
                    "scale": [
                        0.35000014305114746,
                        0.35000014305114746,
                        0.35000014305114746
                    ],
                    "rotation": -2.159998655319214,
                    "weight": [
                        0,
                        0,
                        0,
                        0
                    ],
                    "weightHard": false,
                    "weightScale": [
                        1,
                        1,
                        1
                    ],
                    "mirrored": false,
                    "twinId": 0,
                    "flooded": false,
                    "pathable": false,
                    "mergeable": false,
                    "no_features": true
                },
                {
                    "spec": "/pa/terrain/lava/brushes/lava_volcano_04.json",
                    "proj": "BP_Bend",
                    "op": "BO_Add",
                    "position": [
                        146.5439453125,
                        -61.79393005371094,
                        195.86212158203125
                    ],
                    "height": 252.3005828857422,
                    "transform": [
                        0.688563883304596,
                        0.06807359308004379,
                        0.49370625615119934,
                        146.54396057128906,
                        0.06807359308004379,
                        0.8212950825691223,
                        -0.20818360149860382,
                        -61.7939338684082,
                        -0.49370625615119934,
                        0.20818360149860382,
                        0.6598589420318604,
                        195.8621063232422
                    ],
                    "scale": [
                        0.8500000238418579,
                        0.8500000238418579,
                        0.8500000238418579
                    ],
                    "rotation": 0,
                    "weight": [
                        0,
                        0,
                        0,
                        0
                    ],
                    "weightHard": false,
                    "weightScale": [
                        1,
                        1,
                        1
                    ],
                    "mirrored": false,
                    "twinId": 0,
                    "flooded": false,
                    "pathable": false,
                    "mergeable": false,
                    "no_features": false
                },
                {
                    "spec": "/pa/terrain/lava/brushes/lava_volcano_04.json",
                    "proj": "BP_Bend",
                    "op": "BO_Add",
                    "position": [
                        146.5439453125,
                        -61.79393005371094,
                        195.86212158203125
                    ],
                    "height": 252.3005828857422,
                    "transform": [
                        0.688563883304596,
                        0.06807359308004379,
                        0.49370625615119934,
                        146.54396057128906,
                        0.06807359308004379,
                        0.8212950825691223,
                        -0.20818360149860382,
                        -61.7939338684082,
                        0.49370625615119934,
                        -0.20818360149860382,
                        -0.6598589420318604,
                        -195.8621063232422
                    ],
                    "scale": [
                        0.8500000238418579,
                        0.8500000238418579,
                        0.8500000238418579
                    ],
                    "rotation": 0,
                    "weight": [
                        0,
                        0,
                        0,
                        0
                    ],
                    "weightHard": false,
                    "weightScale": [
                        1,
                        1,
                        1
                    ],
                    "mirrored": true,
                    "twinId": 0,
                    "flooded": false,
                    "pathable": false,
                    "mergeable": false,
                    "no_features": false
                }
            ],
            "metal_spots": [
                [
                    -101.82300567626953,
                    227.35418701171875,
                    36.69529342651367
                ],
                [
                    -101.82300567626953,
                    227.35418701171875,
                    -36.69529342651367
                ],
                [
                    -43.27162170410156,
                    246.3917694091797,
                    27.387916564941406
                ],
                [
                    -43.27162170410156,
                    246.3917694091797,
                    -27.387916564941406
                ],
                [
                    -216.56199645996094,
                    117.43328094482422,
                    50.58218002319336
                ],
                [
                    -216.56199645996094,
                    117.43328094482422,
                    -50.58218002319336
                ],
                [
                    68.64507293701172,
                    117.796630859375,
                    210.53443908691406
                ],
                [
                    68.64507293701172,
                    117.796630859375,
                    -210.53443908691406
                ],
                [
                    225.3983154296875,
                    45.23530578613281,
                    106.86257934570312
                ],
                [
                    225.3983154296875,
                    45.23530578613281,
                    -106.86257934570312
                ],
                [
                    159.3443603515625,
                    -184.74163818359375,
                    68.95591735839844
                ],
                [
                    159.3443603515625,
                    -184.74163818359375,
                    -68.95591735839844
                ],
                [
                    -208.5189208984375,
                    -55.06068420410156,
                    128.01467895507812
                ],
                [
                    -208.5189208984375,
                    -55.06068420410156,
                    -128.01467895507812
                ],
                [
                    -20.813045501708984,
                    -122.4195556640625,
                    219.31610107421875
                ],
                [
                    -20.813045501708984,
                    -122.4195556640625,
                    -219.31610107421875
                ],
                [
                    19.165008544921875,
                    251.0633544921875,
                    0.5754623413085938
                ]
            ],
            "landing_zones": {
                "list": [
                    [
                        -75.68423461914062,
                        240.18032836914062,
                        -0.06699302047491074
                    ]
                ],
                "rules": [
                    {
                        "min": 2,
                        "max": 2
                    }
                ]
            }
        },
        {
            "name": "Nosigah",
            "mass": 24525,
            "position_x": 25000,
            "position_y": -0.0007946626865305007,
            "velocity_x": -0.000001686433051872882,
            "velocity_y": 141.42135620117188,
            "required_thrust_to_move": 0,
            "starting_planet": true,
            "respawn": false,
            "start_destroyed": false,
            "min_spawn_delay": 0,
            "max_spawn_delay": 0,
            "planet": {
                "seed": 1347516288,
                "radius": 600,
                "heightRange": 50,
                "waterHeight": 0,
                "waterDepth": 100,
                "temperature": 0,
                "metalDensity": 73,
                "metalClusters": 0,
                "metalSpotLimit": -1,
                "biomeScale": 50,
                "biome": "moon",
                "symmetryType": "none",
                "symmetricalMetal": false,
                "symmetricalStarts": false,
                "numArmies": 2,
                "landingZonesPerArmy": 0,
                "landingZoneSize": 80,
                "heightAdjustments": []
            },
            "planetCSG": [
                {
                    "proj": "BP_Bend",
                    "spec": "/pa/terrain/moon/brushes/moon_crater_02.json",
                    "height": 619.7478637695312,
                    "op": "BO_Subtract",
                    "position": [
                        525.23974609375,
                        216.76373291015625,
                        254.8560333251953
                    ],
                    "transform": [
                        0.7725388407707214,
                        -0.3249809145927429,
                        1.3157391548156738,
                        522.70947265625,
                        -0.3249809145927429,
                        1.4258815050125122,
                        0.542998731136322,
                        215.71949768066406,
                        -1.3157391548156738,
                        -0.542998731136322,
                        0.6384208798408508,
                        253.62828063964844
                    ],
                    "scale": [
                        1.5599994659423828,
                        1.5599994659423828,
                        1.5599994659423828
                    ],
                    "rotation": 0,
                    "weight": [
                        0,
                        0,
                        0,
                        0
                    ],
                    "weightHard": false,
                    "weightScale": [
                        1,
                        1,
                        1
                    ],
                    "mirrored": false,
                    "twinId": 0,
                    "pathable": true,
                    "flooded": false,
                    "mergeable": true,
                    "no_features": false
                },
                {
                    "proj": "BP_Bend",
                    "spec": "/pa/terrain/moon/brushes/moon_crater_02.json",
                    "height": 613.0838012695312,
                    "op": "BO_Subtract",
                    "position": [
                        395.04150390625,
                        465.01171875,
                        -59.8170166015625
                    ],
                    "transform": [
                        0.842278778553009,
                        -0.8448441624641418,
                        1.0051881074905396,
                        395.04150390625,
                        -0.8448441624641418,
                        0.5655155181884766,
                        1.1832281351089478,
                        465.0116882324219,
                        -1.0051881074905396,
                        -1.1832281351089478,
                        -0.15220515429973602,
                        -59.8170166015625
                    ],
                    "scale": [
                        1.5599994659423828,
                        1.5599994659423828,
                        1.5599994659423828
                    ],
                    "rotation": 0,
                    "weight": [
                        0,
                        0,
                        0,
                        0
                    ],
                    "weightHard": false,
                    "weightScale": [
                        1,
                        1,
                        1
                    ],
                    "mirrored": false,
                    "twinId": 0,
                    "pathable": true,
                    "flooded": false,
                    "mergeable": true,
                    "no_features": false
                },
                {
                    "proj": "BP_Bend",
                    "spec": "/pa/terrain/moon/brushes/moon_crater_02.json",
                    "height": 612.1304931640625,
                    "op": "BO_Subtract",
                    "position": [
                        438.5880126953125,
                        268.20867919921875,
                        -330.4317626953125
                    ],
                    "transform": [
                        -0.32520291209220886,
                        -1.8377635478973389,
                        1.9233450889587402,
                        439.3055419921875,
                        -1.8377635478973389,
                        1.5561553239822388,
                        1.1761785745620728,
                        268.6474609375,
                        -1.9233450889587402,
                        -1.1761785745620728,
                        -1.4490458965301514,
                        -330.9722900390625
                    ],
                    "scale": [
                        2.6799983978271484,
                        2.6799983978271484,
                        2.6799983978271484
                    ],
                    "rotation": 0,
                    "weight": [
                        0,
                        0,
                        0,
                        0
                    ],
                    "weightHard": false,
                    "weightScale": [
                        1,
                        1,
                        1
                    ],
                    "mirrored": false,
                    "twinId": 0,
                    "pathable": true,
                    "flooded": false,
                    "mergeable": true,
                    "no_features": false
                },
                {
                    "proj": "BP_Bend",
                    "spec": "/pa/terrain/moon/brushes/moon_crater_02.json",
                    "height": 601.7350463867188,
                    "op": "BO_Subtract",
                    "position": [
                        155.44027709960938,
                        504.5185546875,
                        -288.7635498046875
                    ],
                    "transform": [
                        0.9478727579116821,
                        0.18656891584396362,
                        0.2583201229572296,
                        155.44027709960938,
                        -0.12404145300388336,
                        -0.5306905508041382,
                        0.8384397029876709,
                        504.5185546875,
                        0.29351484775543213,
                        -0.8267766237258911,
                        -0.4798848628997803,
                        -288.7635498046875
                    ],
                    "scale": [
                        1,
                        1,
                        1
                    ],
                    "rotation": -0.6399999260902405,
                    "weight": [
                        0,
                        0,
                        0,
                        0
                    ],
                    "weightHard": false,
                    "weightScale": [
                        1,
                        1,
                        1
                    ],
                    "mirrored": false,
                    "twinId": 0,
                    "pathable": true,
                    "flooded": false,
                    "mergeable": true,
                    "no_features": false
                },
                {
                    "proj": "BP_Bend",
                    "spec": "/pa/terrain/moon/brushes/moon_crater_02.json",
                    "height": 587.0670776367188,
                    "op": "BO_Subtract",
                    "position": [
                        30.7728271484375,
                        572.8178100585938,
                        -124.8218994140625
                    ],
                    "transform": [
                        0.5685587525367737,
                        -0.820970892906189,
                        0.05241791158914566,
                        30.772830963134766,
                        -0.2041947841644287,
                        -0.07911499589681625,
                        0.9757282137870789,
                        572.8179321289062,
                        -0.7968974709510803,
                        -0.5654622912406921,
                        -0.21261954307556152,
                        -124.82193756103516
                    ],
                    "scale": [
                        1,
                        1,
                        1
                    ],
                    "rotation": 0.8999996781349182,
                    "weight": [
                        0,
                        0,
                        0,
                        0
                    ],
                    "weightHard": false,
                    "weightScale": [
                        1,
                        1,
                        1
                    ],
                    "mirrored": false,
                    "twinId": 0,
                    "pathable": true,
                    "flooded": false,
                    "mergeable": true,
                    "no_features": false
                },
                {
                    "proj": "BP_Bend",
                    "spec": "/pa/terrain/moon/brushes/moon_crater_02.json",
                    "height": 605.3057250976562,
                    "op": "BO_Subtract",
                    "position": [
                        -339.697021484375,
                        484.31640625,
                        123.40554809570312
                    ],
                    "transform": [
                        1.9767606258392334,
                        1.0026276111602783,
                        -1.50650155544281,
                        -340.2591552734375,
                        1.0026276111602783,
                        1.2505217790603638,
                        2.147865056991577,
                        485.11785888671875,
                        1.50650155544281,
                        -2.147865056991577,
                        0.5472838878631592,
                        123.60979461669922
                    ],
                    "scale": [
                        2.6799983978271484,
                        2.6799983978271484,
                        2.6799983978271484
                    ],
                    "rotation": 0,
                    "weight": [
                        0,
                        0,
                        0,
                        0
                    ],
                    "weightHard": false,
                    "weightScale": [
                        1,
                        1,
                        1
                    ],
                    "mirrored": false,
                    "twinId": 0,
                    "pathable": true,
                    "flooded": false,
                    "mergeable": true,
                    "no_features": false
                },
                {
                    "proj": "BP_Bend",
                    "spec": "/pa/terrain/moon/brushes/moon_crater_02.json",
                    "height": 599.7666015625,
                    "op": "BO_Subtract",
                    "position": [
                        -420.9442138671875,
                        -321.01641845703125,
                        -279.7783203125
                    ],
                    "transform": [
                        -0.6681805849075317,
                        -1.7849746942520142,
                        -1.8840892314910889,
                        -421.6471862792969,
                        -1.1511285305023193,
                        1.9475178718566895,
                        -1.4368261098861694,
                        -321.55255126953125,
                        2.3261191844940186,
                        0.45103371143341064,
                        -1.2522499561309814,
                        -280.2455749511719
                    ],
                    "scale": [
                        2.6799983978271484,
                        2.6799983978271484,
                        2.6799983978271484
                    ],
                    "rotation": 0.46000006794929504,
                    "weight": [
                        0,
                        0,
                        0,
                        0
                    ],
                    "weightHard": false,
                    "weightScale": [
                        1,
                        1,
                        1
                    ],
                    "mirrored": false,
                    "twinId": 0,
                    "pathable": true,
                    "flooded": false,
                    "mergeable": true,
                    "no_features": false
                },
                {
                    "proj": "BP_Bend",
                    "spec": "/pa/terrain/moon/brushes/moon_crater_02.json",
                    "height": 593.2798461914062,
                    "op": "BO_Subtract",
                    "position": [
                        -198.6573486328125,
                        -354.8172607421875,
                        430.6220703125
                    ],
                    "transform": [
                        1.6545310020446777,
                        1.907064437866211,
                        -0.8989017605781555,
                        -198.99276733398438,
                        -1.9369033575057983,
                        0.9236570596694946,
                        -1.605507493019104,
                        -355.4163513183594,
                        -0.8326606750488281,
                        1.6408398151397705,
                        1.94851553440094,
                        431.3491516113281
                    ],
                    "scale": [
                        2.6799983978271484,
                        2.6799983978271484,
                        2.6799983978271484
                    ],
                    "rotation": -0.9799996018409729,
                    "weight": [
                        0,
                        0,
                        0,
                        0
                    ],
                    "weightHard": false,
                    "weightScale": [
                        1,
                        1,
                        1
                    ],
                    "mirrored": false,
                    "twinId": 0,
                    "pathable": true,
                    "flooded": false,
                    "mergeable": true,
                    "no_features": false
                },
                {
                    "proj": "BP_Bend",
                    "spec": "/pa/terrain/moon/brushes/moon_crater_02.json",
                    "height": 610.5167846679688,
                    "op": "BO_Subtract",
                    "position": [
                        -587.4462890625,
                        79.75234985351562,
                        145.8670654296875
                    ],
                    "transform": [
                        0.25269752740859985,
                        0.10145460069179535,
                        -0.9622114300727844,
                        -587.4462280273438,
                        0.10145460069179535,
                        0.9862264394760132,
                        0.13063086569309235,
                        79.75233459472656,
                        0.9622114300727844,
                        -0.13063086569309235,
                        0.23892396688461304,
                        145.86709594726562
                    ],
                    "scale": [
                        1,
                        1,
                        1
                    ],
                    "rotation": 0,
                    "weight": [
                        0,
                        0,
                        0,
                        0
                    ],
                    "weightHard": false,
                    "weightScale": [
                        1,
                        1,
                        1
                    ],
                    "mirrored": false,
                    "twinId": 0,
                    "pathable": true,
                    "flooded": false,
                    "mergeable": true,
                    "no_features": false
                },
                {
                    "proj": "BP_Bend",
                    "spec": "/pa/terrain/moon/brushes/moon_crater_02.json",
                    "height": 614.22021484375,
                    "op": "BO_Subtract",
                    "position": [
                        -97.2904052734375,
                        -609.384521484375,
                        -12.07611083984375
                    ],
                    "transform": [
                        0.9746580123901367,
                        -0.15873126685619354,
                        -0.15762673318386078,
                        -96.8175277709961,
                        -0.15873126685619354,
                        0.005776762962341309,
                        -0.9873048663139343,
                        -606.422607421875,
                        0.15762673318386078,
                        0.9873048663139343,
                        -0.019565224647521973,
                        -12.017356872558594
                    ],
                    "scale": [
                        1,
                        1,
                        1
                    ],
                    "rotation": 0,
                    "weight": [
                        0,
                        0,
                        0,
                        0
                    ],
                    "weightHard": false,
                    "weightScale": [
                        1,
                        1,
                        1
                    ],
                    "mirrored": false,
                    "twinId": 0,
                    "pathable": true,
                    "flooded": false,
                    "mergeable": true,
                    "no_features": false
                },
                {
                    "proj": "BP_Bend",
                    "spec": "/pa/terrain/moon/brushes/moon_crater_02.json",
                    "height": 620.34814453125,
                    "op": "BO_Subtract",
                    "position": [
                        84.07537841796875,
                        -575.262939453125,
                        -216.41558837890625
                    ],
                    "transform": [
                        0.971790611743927,
                        0.1930149495601654,
                        0.13552936911582947,
                        84.07539367675781,
                        0.1930149495601654,
                        -0.3206522464752197,
                        -0.9273228645324707,
                        -575.2630004882812,
                        -0.13552936911582947,
                        0.9273228645324707,
                        -0.34886157512664795,
                        -216.41563415527344
                    ],
                    "scale": [
                        1,
                        1,
                        1
                    ],
                    "rotation": 0,
                    "weight": [
                        0,
                        0,
                        0,
                        0
                    ],
                    "weightHard": false,
                    "weightScale": [
                        1,
                        1,
                        1
                    ],
                    "mirrored": false,
                    "twinId": 0,
                    "pathable": true,
                    "flooded": false,
                    "mergeable": true,
                    "no_features": false
                },
                {
                    "proj": "BP_Bend",
                    "spec": "/pa/terrain/moon/brushes/moon_crater_02.json",
                    "height": 627.853759765625,
                    "op": "BO_Subtract",
                    "position": [
                        -167.882568359375,
                        -500.3585205078125,
                        -340.08404541015625
                    ],
                    "transform": [
                        1.6036107540130615,
                        -0.8833580017089844,
                        -0.5080429911613464,
                        -167.88255310058594,
                        -0.8833580017089844,
                        -0.7327678203582764,
                        -1.514175295829773,
                        -500.35845947265625,
                        0.5080429911613464,
                        1.514175295829773,
                        -1.02915620803833,
                        -340.0841369628906
                    ],
                    "scale": [
                        1.8999991416931152,
                        1.8999991416931152,
                        1.8999991416931152
                    ],
                    "rotation": 0,
                    "weight": [
                        0,
                        0,
                        0,
                        0
                    ],
                    "weightHard": false,
                    "weightScale": [
                        1,
                        1,
                        1
                    ],
                    "mirrored": false,
                    "twinId": 0,
                    "pathable": true,
                    "flooded": false,
                    "mergeable": true,
                    "no_features": false
                },
                {
                    "proj": "BP_Bend",
                    "spec": "/pa/terrain/moon/brushes/moon_crater_02.json",
                    "height": 597.2733764648438,
                    "op": "BO_Subtract",
                    "position": [
                        -58.978233337402344,
                        398.07208251953125,
                        441.35662841796875
                    ],
                    "transform": [
                        0.9943927526473999,
                        0.03784595802426338,
                        -0.09874580800533295,
                        -58.978240966796875,
                        0.03784595802426338,
                        0.744559645652771,
                        0.6664822697639465,
                        398.0721130371094,
                        0.09874580800533295,
                        -0.6664822697639465,
                        0.7389523983001709,
                        441.3565979003906
                    ],
                    "scale": [
                        1,
                        1,
                        1
                    ],
                    "rotation": 0,
                    "weight": [
                        0,
                        0,
                        0,
                        0
                    ],
                    "weightHard": false,
                    "weightScale": [
                        1,
                        1,
                        1
                    ],
                    "mirrored": false,
                    "twinId": 0,
                    "pathable": true,
                    "flooded": false,
                    "mergeable": true,
                    "no_features": false
                },
                {
                    "proj": "BP_Bend",
                    "spec": "/pa/terrain/moon/brushes/moon_crater_02.json",
                    "height": 608.2699584960938,
                    "op": "BO_Subtract",
                    "position": [
                        148.69522094726562,
                        67.629638671875,
                        585.9251708984375
                    ],
                    "transform": [
                        0.9695615768432617,
                        -0.013844027183949947,
                        0.2444559931755066,
                        148.6952362060547,
                        -0.013844027183949947,
                        0.9937034249305725,
                        0.11118359863758087,
                        67.62964630126953,
                        -0.2444559931755066,
                        -0.11118359863758087,
                        0.9632650017738342,
                        585.9251708984375
                    ],
                    "scale": [
                        1,
                        1,
                        1
                    ],
                    "rotation": 0,
                    "weight": [
                        0,
                        0,
                        0,
                        0
                    ],
                    "weightHard": false,
                    "weightScale": [
                        1,
                        1,
                        1
                    ],
                    "mirrored": false,
                    "twinId": 0,
                    "pathable": true,
                    "flooded": false,
                    "mergeable": true,
                    "no_features": false
                },
                {
                    "proj": "BP_Bend",
                    "spec": "/pa/terrain/moon/brushes/moon_crater_02.json",
                    "height": 594.329345703125,
                    "op": "BO_Subtract",
                    "position": [
                        79.63922119140625,
                        249.1904296875,
                        533.6563720703125
                    ],
                    "transform": [
                        0.9905393123626709,
                        -0.02960244007408619,
                        0.13399843871593475,
                        79.63920593261719,
                        -0.02960244007408619,
                        0.9073742032051086,
                        0.41927996277809143,
                        249.1903839111328,
                        -0.13399843871593475,
                        -0.41927996277809143,
                        0.8979135155677795,
                        533.6563720703125
                    ],
                    "scale": [
                        1,
                        1,
                        1
                    ],
                    "rotation": 0,
                    "weight": [
                        0,
                        0,
                        0,
                        0
                    ],
                    "weightHard": false,
                    "weightScale": [
                        1,
                        1,
                        1
                    ],
                    "mirrored": false,
                    "twinId": 0,
                    "pathable": true,
                    "flooded": false,
                    "mergeable": true,
                    "no_features": false
                },
                {
                    "proj": "BP_Bend",
                    "spec": "/pa/terrain/moon/brushes/moon_crater_02.json",
                    "height": 606.7631225585938,
                    "op": "BO_Subtract",
                    "position": [
                        -59.9459228515625,
                        106.01751708984375,
                        594.4142456054688
                    ],
                    "transform": [
                        0.4766954183578491,
                        -0.8734991550445557,
                        -0.09879626333713531,
                        -59.94593048095703,
                        0.8724663257598877,
                        0.4563695192337036,
                        0.17472636699676514,
                        106.01751708984375,
                        -0.10753573477268219,
                        -0.16948767006397247,
                        0.9796478748321533,
                        594.4141845703125
                    ],
                    "scale": [
                        1,
                        1,
                        1
                    ],
                    "rotation": 1.079999566078186,
                    "weight": [
                        0,
                        0,
                        0,
                        0
                    ],
                    "weightHard": false,
                    "weightScale": [
                        1,
                        1,
                        1
                    ],
                    "mirrored": false,
                    "twinId": 0,
                    "pathable": true,
                    "flooded": false,
                    "mergeable": true,
                    "no_features": false
                },
                {
                    "proj": "BP_Bend",
                    "spec": "/pa/terrain/moon/brushes/moon_crater_02.json",
                    "height": 584.12890625,
                    "op": "BO_Subtract",
                    "position": [
                        545.294677734375,
                        -197.80615234375,
                        -68.79696655273438
                    ],
                    "transform": [
                        0.01903989352285862,
                        0.5589845180511475,
                        1.456287145614624,
                        545.294677734375,
                        0.5589845180511475,
                        1.3572273254394531,
                        -0.5282694697380066,
                        -197.80613708496094,
                        -1.456287145614624,
                        0.5282694697380066,
                        -0.18373222649097443,
                        -68.79701232910156
                    ],
                    "scale": [
                        1.5599994659423828,
                        1.5599994659423828,
                        1.5599994659423828
                    ],
                    "rotation": 0,
                    "weight": [
                        0,
                        0,
                        0,
                        0
                    ],
                    "weightHard": false,
                    "weightScale": [
                        1,
                        1,
                        1
                    ],
                    "mirrored": false,
                    "twinId": 0,
                    "pathable": true,
                    "flooded": false,
                    "mergeable": true,
                    "no_features": false
                },
                {
                    "proj": "BP_Bend",
                    "spec": "/pa/terrain/moon/brushes/moon_crater_02.json",
                    "height": 610.643798828125,
                    "op": "BO_Subtract",
                    "position": [
                        236.8319091796875,
                        -528.301025390625,
                        194.15090942382812
                    ],
                    "transform": [
                        1.3819537162780762,
                        0.3971668779850006,
                        0.6050296425819397,
                        236.83187866210938,
                        0.3971668779850006,
                        0.6740391254425049,
                        -1.349639892578125,
                        -528.3009643554688,
                        -0.6050296425819397,
                        1.349639892578125,
                        0.4959932863712311,
                        194.15084838867188
                    ],
                    "scale": [
                        1.5599994659423828,
                        1.5599994659423828,
                        1.5599994659423828
                    ],
                    "rotation": 0,
                    "weight": [
                        0,
                        0,
                        0,
                        0
                    ],
                    "weightHard": false,
                    "weightScale": [
                        1,
                        1,
                        1
                    ],
                    "mirrored": false,
                    "twinId": 0,
                    "pathable": true,
                    "flooded": false,
                    "mergeable": true,
                    "no_features": false
                },
                {
                    "proj": "BP_Bend",
                    "spec": "/pa/terrain/moon/brushes/moon_crater_02.json",
                    "height": 605.2120361328125,
                    "op": "BO_Subtract",
                    "position": [
                        399.740478515625,
                        -205.6751708984375,
                        405.1998291015625
                    ],
                    "transform": [
                        2.4952480792999268,
                        -0.2502666413784027,
                        2.20605731010437,
                        399.7405090332031,
                        1.2907429933547974,
                        2.8637731075286865,
                        -1.1350646018981934,
                        -205.6752166748047,
                        -1.8064619302749634,
                        1.7005163431167603,
                        2.236185312271118,
                        405.19976806640625
                    ],
                    "scale": [
                        3.3399977684020996,
                        3.3399977684020996,
                        3.3399977684020996
                    ],
                    "rotation": 0.2799999713897705,
                    "weight": [
                        0,
                        0,
                        0,
                        0
                    ],
                    "weightHard": false,
                    "weightScale": [
                        1,
                        1,
                        1
                    ],
                    "mirrored": false,
                    "twinId": 0,
                    "pathable": true,
                    "flooded": false,
                    "mergeable": true,
                    "no_features": false
                },
                {
                    "proj": "BP_Bend",
                    "spec": "/pa/terrain/moon/brushes/moon_crater_02.json",
                    "height": 600.3723754882812,
                    "op": "BO_Subtract",
                    "position": [
                        228.338623046875,
                        485.58984375,
                        275.902587890625
                    ],
                    "transform": [
                        1.3553171157836914,
                        0.4981834590435028,
                        0.5903620719909668,
                        227.2033233642578,
                        -0.7476593255996704,
                        0.5462439060211182,
                        1.2554765939712524,
                        483.17547607421875,
                        0.19421544671058655,
                        -1.3736917972564697,
                        0.7133368849754333,
                        274.5307312011719
                    ],
                    "scale": [
                        1.5599994659423828,
                        1.5599994659423828,
                        1.5599994659423828
                    ],
                    "rotation": -0.5799999833106995,
                    "weight": [
                        0,
                        0,
                        0,
                        0
                    ],
                    "weightHard": false,
                    "weightScale": [
                        1,
                        1,
                        1
                    ],
                    "mirrored": false,
                    "twinId": 0,
                    "pathable": true,
                    "flooded": false,
                    "mergeable": true,
                    "no_features": false
                },
                {
                    "proj": "BP_Bend",
                    "spec": "/pa/terrain/moon/brushes/moon_crater_02.json",
                    "height": 612.4078979492188,
                    "op": "BO_Subtract",
                    "position": [
                        -433.503173828125,
                        350.4390869140625,
                        -260.7572021484375
                    ],
                    "transform": [
                        0.31406116485595703,
                        1.5730739831924438,
                        -1.5919793844223022,
                        -431.38995361328125,
                        1.5730739831924438,
                        0.9883434772491455,
                        1.286938190460205,
                        348.73077392578125,
                        1.5919793844223022,
                        -1.286938190460205,
                        -0.9575940370559692,
                        -259.4860534667969
                    ],
                    "scale": [
                        2.2599987983703613,
                        2.2599987983703613,
                        2.2599987983703613
                    ],
                    "rotation": 0,
                    "weight": [
                        0,
                        0,
                        0,
                        0
                    ],
                    "weightHard": false,
                    "weightScale": [
                        1,
                        1,
                        1
                    ],
                    "mirrored": false,
                    "twinId": 0,
                    "pathable": true,
                    "flooded": false,
                    "mergeable": true,
                    "no_features": false
                },
                {
                    "proj": "BP_Bend",
                    "spec": "/pa/terrain/moon/brushes/moon_crater_02.json",
                    "height": 603.4722900390625,
                    "op": "BO_Subtract",
                    "position": [
                        -248.6552734375,
                        157.11190795898438,
                        -530.37255859375
                    ],
                    "transform": [
                        -0.5299010872840881,
                        1.320495843887329,
                        -0.6396039128303528,
                        -247.42523193359375,
                        1.320495843887329,
                        0.7256491780281067,
                        0.40413132309913635,
                        156.33470153808594,
                        0.6396039128303528,
                        -0.40413132309913635,
                        -1.3642513751983643,
                        -527.7488403320312
                    ],
                    "scale": [
                        1.5599994659423828,
                        1.5599994659423828,
                        1.5599994659423828
                    ],
                    "rotation": 0,
                    "weight": [
                        0,
                        0,
                        0,
                        0
                    ],
                    "weightHard": false,
                    "weightScale": [
                        1,
                        1,
                        1
                    ],
                    "mirrored": false,
                    "twinId": 0,
                    "pathable": true,
                    "flooded": false,
                    "mergeable": true,
                    "no_features": false
                },
                {
                    "proj": "BP_Bend",
                    "spec": "/pa/terrain/moon/brushes/moon_crater_02.json",
                    "height": 591.4491577148438,
                    "op": "BO_Subtract",
                    "position": [
                        -57.774169921875,
                        24.0673828125,
                        -591.145263671875
                    ],
                    "transform": [
                        -1.0912423133850098,
                        1.1044459342956543,
                        -0.1516144573688507,
                        -57.48222732543945,
                        1.1044459342956543,
                        1.0999130010604858,
                        0.06315907090902328,
                        23.945762634277344,
                        0.1516144573688507,
                        -0.06315907090902328,
                        -1.5513287782669067,
                        -588.1618041992188
                    ],
                    "scale": [
                        1.5599994659423828,
                        1.5599994659423828,
                        1.5599994659423828
                    ],
                    "rotation": 0,
                    "weight": [
                        0,
                        0,
                        0,
                        0
                    ],
                    "weightHard": false,
                    "weightScale": [
                        1,
                        1,
                        1
                    ],
                    "mirrored": false,
                    "twinId": 0,
                    "pathable": true,
                    "flooded": false,
                    "mergeable": true,
                    "no_features": false
                },
                {
                    "proj": "BP_Bend",
                    "spec": "/pa/terrain/moon/brushes/moon_crater_02.json",
                    "height": 599.410888671875,
                    "op": "BO_Subtract",
                    "position": [
                        -274.07861328125,
                        -44.328399658203125,
                        -534.616455078125
                    ],
                    "transform": [
                        -1.3093810081481934,
                        -0.4640823304653168,
                        -0.7097525596618652,
                        -272.7138366699219,
                        -0.4640823304653168,
                        1.4849406480789185,
                        -0.114792600274086,
                        -44.107666015625,
                        0.7097525596618652,
                        0.114792600274086,
                        -1.3844399452209473,
                        -531.9542846679688
                    ],
                    "scale": [
                        1.5599994659423828,
                        1.5599994659423828,
                        1.5599994659423828
                    ],
                    "rotation": 0,
                    "weight": [
                        0,
                        0,
                        0,
                        0
                    ],
                    "weightHard": false,
                    "weightScale": [
                        1,
                        1,
                        1
                    ],
                    "mirrored": false,
                    "twinId": 0,
                    "pathable": true,
                    "flooded": false,
                    "mergeable": true,
                    "no_features": false
                },
                {
                    "proj": "BP_Bend",
                    "spec": "/pa/terrain/moon/brushes/moon_crater_02.json",
                    "height": 591.1539916992188,
                    "op": "BO_Subtract",
                    "position": [
                        -183.42147827148438,
                        47.5159797668457,
                        -567.350830078125
                    ],
                    "transform": [
                        -1.2885042428970337,
                        0.7379149794578552,
                        -0.47836777567863464,
                        -181.2750701904297,
                        0.7379149794578552,
                        1.368839979171753,
                        0.12392286956310272,
                        46.9599494934082,
                        0.47836777567863464,
                        -0.12392286956310272,
                        -1.4796638488769531,
                        -560.711181640625
                    ],
                    "scale": [
                        1.5599994659423828,
                        1.5599994659423828,
                        1.5599994659423828
                    ],
                    "rotation": 0,
                    "weight": [
                        0,
                        0,
                        0,
                        0
                    ],
                    "weightHard": false,
                    "weightScale": [
                        1,
                        1,
                        1
                    ],
                    "mirrored": false,
                    "twinId": 0,
                    "pathable": true,
                    "flooded": false,
                    "mergeable": true,
                    "no_features": false
                },
                {
                    "proj": "BP_Bend",
                    "spec": "/pa/terrain/moon/brushes/moon_crater_02.json",
                    "height": 613.7057495117188,
                    "op": "BO_Subtract",
                    "position": [
                        128.90887451171875,
                        -286.653564453125,
                        -527.1119384765625
                    ],
                    "transform": [
                        0.49486106634140015,
                        0.5006400942802429,
                        0.15123605728149414,
                        128.9088897705078,
                        0.5006400942802429,
                        -0.393268883228302,
                        -0.3363023102283478,
                        -286.6535949707031,
                        -0.15123605728149414,
                        0.3363023102283478,
                        -0.6184080839157104,
                        -527.1117553710938
                    ],
                    "scale": [
                        0.7200002670288086,
                        0.7200002670288086,
                        0.7200002670288086
                    ],
                    "rotation": 0,
                    "weight": [
                        0,
                        0,
                        0,
                        0
                    ],
                    "weightHard": false,
                    "weightScale": [
                        1,
                        1,
                        1
                    ],
                    "mirrored": false,
                    "twinId": 0,
                    "pathable": true,
                    "flooded": false,
                    "mergeable": true,
                    "no_features": false
                },
                {
                    "proj": "BP_Bend",
                    "spec": "/pa/terrain/moon/brushes/moon_crater_02.json",
                    "height": 620.9107666015625,
                    "op": "BO_Subtract",
                    "position": [
                        131.28842163085938,
                        -417.8415832519531,
                        -444.338134765625
                    ],
                    "transform": [
                        0.6092300415039062,
                        0.3525398373603821,
                        0.1515083611011505,
                        130.65713500976562,
                        0.3525398373603821,
                        -0.4020012319087982,
                        -0.48219406604766846,
                        -415.83245849609375,
                        -0.1515083611011505,
                        0.48219406604766846,
                        -0.5127714276313782,
                        -442.20166015625
                    ],
                    "scale": [
                        0.7200002670288086,
                        0.7200002670288086,
                        0.7200002670288086
                    ],
                    "rotation": 0,
                    "weight": [
                        0,
                        0,
                        0,
                        0
                    ],
                    "weightHard": false,
                    "weightScale": [
                        1,
                        1,
                        1
                    ],
                    "mirrored": false,
                    "twinId": 0,
                    "pathable": true,
                    "flooded": false,
                    "mergeable": true,
                    "no_features": false
                },
                {
                    "proj": "BP_Bend",
                    "spec": "/pa/terrain/moon/brushes/moon_crater_02.json",
                    "height": 601.15380859375,
                    "op": "BO_Subtract",
                    "position": [
                        307.2661437988281,
                        -259.93829345703125,
                        -453.25714111328125
                    ],
                    "transform": [
                        -0.013468042016029358,
                        0.6204929351806641,
                        0.36497625708580017,
                        304.7316589355469,
                        0.6204929351806641,
                        0.1950811743736267,
                        -0.3087593615055084,
                        -257.7941589355469,
                        -0.36497625708580017,
                        0.3087593615055084,
                        -0.53838711977005,
                        -449.5185241699219
                    ],
                    "scale": [
                        0.7200002670288086,
                        0.7200002670288086,
                        0.7200002670288086
                    ],
                    "rotation": 0,
                    "weight": [
                        0,
                        0,
                        0,
                        0
                    ],
                    "weightHard": false,
                    "weightScale": [
                        1,
                        1,
                        1
                    ],
                    "mirrored": false,
                    "twinId": 0,
                    "pathable": true,
                    "flooded": false,
                    "mergeable": true,
                    "no_features": false
                },
                {
                    "proj": "BP_Bend",
                    "spec": "/pa/terrain/moon/brushes/moon_crater_02.json",
                    "height": 614.4275512695312,
                    "op": "BO_Subtract",
                    "position": [
                        234.31817626953125,
                        -412.2916564941406,
                        -390.6812744140625
                    ],
                    "transform": [
                        0.708732545375824,
                        0.8292125463485718,
                        0.45000478625297546,
                        234.31813049316406,
                        0.8292125463485718,
                        -0.27903103828430176,
                        -0.7918004989624023,
                        -412.2916259765625,
                        -0.45000478625297546,
                        0.7918004989624023,
                        -0.7502983212471008,
                        -390.681396484375
                    ],
                    "scale": [
                        1.179999828338623,
                        1.179999828338623,
                        1.179999828338623
                    ],
                    "rotation": 0,
                    "weight": [
                        0,
                        0,
                        0,
                        0
                    ],
                    "weightHard": false,
                    "weightScale": [
                        1,
                        1,
                        1
                    ],
                    "mirrored": false,
                    "twinId": 0,
                    "pathable": true,
                    "flooded": false,
                    "mergeable": true,
                    "no_features": false
                },
                {
                    "proj": "BP_Bend",
                    "spec": "/pa/terrain/moon/brushes/moon_crater_02.json",
                    "height": 596.7017822265625,
                    "op": "BO_Subtract",
                    "position": [
                        366.10162353515625,
                        -458.72900390625,
                        -107.65826416015625
                    ],
                    "transform": [
                        0.8434882760047913,
                        0.8977956771850586,
                        0.9571253061294556,
                        366.1016540527344,
                        0.8977956771850586,
                        0.43505236506462097,
                        -1.1992876529693604,
                        -458.7290344238281,
                        -0.9571253061294556,
                        1.1992876529693604,
                        -0.28145870566368103,
                        -107.65830993652344
                    ],
                    "scale": [
                        1.5599994659423828,
                        1.5599994659423828,
                        1.5599994659423828
                    ],
                    "rotation": 0,
                    "weight": [
                        0,
                        0,
                        0,
                        0
                    ],
                    "weightHard": false,
                    "weightScale": [
                        1,
                        1,
                        1
                    ],
                    "mirrored": false,
                    "twinId": 0,
                    "pathable": true,
                    "flooded": false,
                    "mergeable": true,
                    "no_features": false
                },
                {
                    "proj": "BP_Bend",
                    "spec": "/pa/terrain/moon/brushes/moon_crater_02.json",
                    "height": 584.0530395507812,
                    "op": "BO_Subtract",
                    "position": [
                        530.974853515625,
                        -161.9755859375,
                        -181.5146484375
                    ],
                    "transform": [
                        0.1928836852312088,
                        0.6205020546913147,
                        1.418228268623352,
                        530.974853515625,
                        1.3917858600616455,
                        0.5561988353729248,
                        -0.432635098695755,
                        -161.9755859375,
                        -0.6777359843254089,
                        1.3187942504882812,
                        -0.48482340574264526,
                        -181.51454162597656
                    ],
                    "scale": [
                        1.5599994659423828,
                        1.5599994659423828,
                        1.5599994659423828
                    ],
                    "rotation": 0.7999997735023499,
                    "weight": [
                        0,
                        0,
                        0,
                        0
                    ],
                    "weightHard": false,
                    "weightScale": [
                        1,
                        1,
                        1
                    ],
                    "mirrored": false,
                    "twinId": 0,
                    "pathable": true,
                    "flooded": false,
                    "mergeable": true,
                    "no_features": false
                },
                {
                    "proj": "BP_Bend",
                    "spec": "/pa/terrain/moon/brushes/moon_crater_02.json",
                    "height": 586.5518188476562,
                    "op": "BO_Subtract",
                    "position": [
                        233.8721923828125,
                        33.9052734375,
                        -536.840087890625
                    ],
                    "transform": [
                        0.15743106603622437,
                        -1.4219417572021484,
                        0.6220088601112366,
                        233.8721466064453,
                        -1.551756501197815,
                        -0.13235783576965332,
                        0.09017481654882431,
                        33.905269622802734,
                        -0.029420264065265656,
                        -0.6278223395347595,
                        -1.4277855157852173,
                        -536.8400268554688
                    ],
                    "scale": [
                        1.5599994659423828,
                        1.5599994659423828,
                        1.5599994659423828
                    ],
                    "rotation": -1.3799992799758911,
                    "weight": [
                        0,
                        0,
                        0,
                        0
                    ],
                    "weightHard": false,
                    "weightScale": [
                        1,
                        1,
                        1
                    ],
                    "mirrored": false,
                    "twinId": 0,
                    "pathable": true,
                    "flooded": false,
                    "mergeable": true,
                    "no_features": false
                },
                {
                    "proj": "BP_Bend",
                    "spec": "/pa/terrain/moon/brushes/moon_crater_02.json",
                    "height": 609.571533203125,
                    "op": "BO_Subtract",
                    "position": [
                        -569.8443603515625,
                        -208.25872802734375,
                        59.0185546875
                    ],
                    "transform": [
                        0.3170532286167145,
                        -0.4542545676231384,
                        -1.4583308696746826,
                        -569.8444213867188,
                        -0.4542545676231384,
                        1.3939847946166992,
                        -0.5329703688621521,
                        -208.25875854492188,
                        1.4583308696746826,
                        0.5329703688621521,
                        0.15103858709335327,
                        59.018497467041016
                    ],
                    "scale": [
                        1.5599994659423828,
                        1.5599994659423828,
                        1.5599994659423828
                    ],
                    "rotation": 0,
                    "weight": [
                        0,
                        0,
                        0,
                        0
                    ],
                    "weightHard": false,
                    "weightScale": [
                        1,
                        1,
                        1
                    ],
                    "mirrored": false,
                    "twinId": 0,
                    "pathable": true,
                    "flooded": false,
                    "mergeable": true,
                    "no_features": false
                },
                {
                    "proj": "BP_Bend",
                    "spec": "/pa/terrain/moon/brushes/moon_crater_02.json",
                    "height": 601.782958984375,
                    "op": "BO_Subtract",
                    "position": [
                        -588.0550537109375,
                        -70.0805892944336,
                        -106.876953125
                    ],
                    "transform": [
                        -0.25133177638053894,
                        -0.2158627212047577,
                        -1.5244128704071045,
                        -588.0551147460938,
                        -0.2158627212047577,
                        1.5342743396759033,
                        -0.18166962265968323,
                        -70.0805892944336,
                        1.5244128704071045,
                        0.18166962265968323,
                        -0.27705687284469604,
                        -106.87702941894531
                    ],
                    "scale": [
                        1.5599994659423828,
                        1.5599994659423828,
                        1.5599994659423828
                    ],
                    "rotation": 0,
                    "weight": [
                        0,
                        0,
                        0,
                        0
                    ],
                    "weightHard": false,
                    "weightScale": [
                        1,
                        1,
                        1
                    ],
