{
    "name": "Headwind",
    "description": "",
    "creator": "WPMarshall",
    "version": "1.1.0",
    "players":[2, 6],
    "planets": [
        {
            "name": "Headwind",
            "mass": 10000,
            "position_x": 25000,
            "position_y": 0,
            "velocity_x": -0.000006181723165354924,
            "velocity_y": 141.42135620117188,
            "required_thrust_to_move": 0,
            "starting_planet": true,
            "respawn": false,
            "start_destroyed": false,
            "min_spawn_delay": 0,
            "max_spawn_delay": 0,
            "planetCSG": [
                {
                    "proj": "BP_Bend",
                    "spec": "/pa/terrain/jungle/brushes/jungle_plateau_06.json",
                    "height": 561.7365112304688,
                    "op": "BO_Add",
                    "position": [
                        -208.66006469726562,
                        -354.25,
                        382.7738037109375
                    ],
                    "transform": [
                        0.5353208184242249,
                        -1.265543818473816,
                        -0.8469178676605225,
                        -208.66006469726562,
                        0.8549169301986694,
                        0.7670701742172241,
                        -1.4378440380096436,
                        -354.2499694824219,
                        1.0830268859863281,
                        0.020027875900268555,
                        1.5536179542541504,
                        382.77386474609375
                    ],
                    "scale": [
                        1.4799995422363281,
                        1.4799995422363281,
                        2.279998779296875
                    ],
                    "rotation": 1.019999623298645,
                    "weight": [
                        0,
                        0,
                        0,
                        0
                    ],
                    "weightHard": false,
                    "weightScale": [
                        1,
                        1,
                        1
                    ],
                    "mirrored": false,
                    "twinId": 1,
                    "pathable": false,
                    "flooded": false,
                    "mergeable": false,
                    "no_features": false
                },
                {
                    "proj": "BP_Bend",
                    "spec": "/pa/terrain/jungle/brushes/jungle_plateau_06.json",
                    "height": 561.7365112304688,
                    "op": "BO_Add",
                    "position": [
                        -208.66006469726562,
                        -354.25,
                        382.7738037109375
                    ],
                    "transform": [
                        0.5353208184242249,
                        -1.265543818473816,
                        -0.8469178676605225,
                        -208.6600799560547,
                        0.8549169301986694,
                        0.7670701742172241,
                        -1.4378440380096436,
                        -354.2499694824219,
                        -1.0830268859863281,
                        -0.020027875900268555,
                        -1.5536179542541504,
                        -382.7738952636719
                    ],
                    "scale": [
                        1.4799995422363281,
                        1.4799995422363281,
                        2.279998779296875
                    ],
                    "rotation": 1.019999623298645,
                    "weight": [
                        0,
                        0,
                        0,
                        0
                    ],
                    "weightHard": false,
                    "weightScale": [
                        1,
                        1,
                        1
                    ],
                    "mirrored": true,
                    "twinId": 1,
                    "pathable": false,
                    "flooded": false,
                    "mergeable": false,
                    "no_features": false
                },
                {
                    "proj": "BP_Bend",
                    "spec": "/pa/terrain/jungle/brushes/jungle_volcano_06.json",
                    "height": 558.7005004882812,
                    "op": "BO_Add",
                    "position": [
                        -293.7856750488281,
                        -458.58489990234375,
                        137.4674835205078
                    ],
                    "transform": [
                        -0.10363078117370605,
                        0.8974905610084534,
                        -0.6799374222755432,
                        -292.216552734375,
                        -0.24144481122493744,
                        -0.5624710321426392,
                        -1.061348795890808,
                        -456.1356201171875,
                        -1.0269200801849365,
                        0.04167613387107849,
                        0.31815487146377563,
                        136.73333740234375
                    ],
                    "scale": [
                        1.059999942779541,
                        1.059999942779541,
                        1.299999713897705
                    ],
                    "rotation": -2.099998712539673,
                    "weight": [
                        0,
                        0,
                        0,
                        0
                    ],
                    "weightHard": false,
                    "weightScale": [
                        1,
                        1,
                        1
                    ],
                    "mirrored": false,
                    "twinId": 3,
                    "pathable": false,
                    "flooded": false,
                    "mergeable": false,
                    "no_features": false
                },
                {
                    "proj": "BP_Bend",
                    "spec": "/pa/terrain/jungle/brushes/jungle_volcano_06.json",
                    "height": 558.7005004882812,
                    "op": "BO_Add",
                    "position": [
                        -293.7856750488281,
                        -458.58489990234375,
                        137.4674835205078
                    ],
                    "transform": [
                        -0.10363078117370605,
                        0.8974905610084534,
                        -0.6799374222755432,
                        -292.216552734375,
                        -0.24144481122493744,
                        -0.5624710321426392,
                        -1.061348795890808,
                        -456.1356506347656,
                        1.0269200801849365,
                        -0.04167613387107849,
                        -0.31815487146377563,
                        -136.73333740234375
                    ],
                    "scale": [
                        1.059999942779541,
                        1.059999942779541,
                        1.299999713897705
                    ],
                    "rotation": -2.099998712539673,
                    "weight": [
                        0,
                        0,
                        0,
                        0
                    ],
                    "weightHard": false,
                    "weightScale": [
                        1,
                        1,
                        1
                    ],
                    "mirrored": true,
                    "twinId": 3,
                    "pathable": false,
                    "flooded": false,
                    "mergeable": false,
                    "no_features": false
                },
                {
                    "proj": "BP_Bend",
                    "spec": "/pa/terrain/jungle/brushes/jungle_plateau_01.json",
                    "height": 557.6190795898438,
                    "op": "BO_Add",
                    "position": [
                        -510.4015197753906,
                        -137.80633544921875,
                        189.51437377929688
                    ],
                    "transform": [
                        1.2608652114868164,
                        0.4874362051486969,
                        -3.471627712249756,
                        -506.76629638671875,
                        -2.5600924491882324,
                        1.819745421409607,
                        -0.9373252987861633,
                        -136.8248291015625,
                        1.5341877937316895,
                        2.6360039710998535,
                        1.289030909538269,
                        188.16458129882812
                    ],
                    "scale": [
                        3.2399978637695312,
                        3.2399978637695312,
                        3.8199973106384277
                    ],
                    "rotation": -0.7799997925758362,
                    "weight": [
                        0,
                        0,
                        0,
                        0
                    ],
                    "weightHard": false,
                    "weightScale": [
                        1,
                        1,
                        1
                    ],
                    "mirrored": false,
                    "twinId": 4,
                    "pathable": false,
                    "flooded": false,
                    "mergeable": false,
                    "no_features": false
                },
                {
                    "proj": "BP_Bend",
                    "spec": "/pa/terrain/jungle/brushes/jungle_plateau_01.json",
                    "height": 557.6190795898438,
                    "op": "BO_Add",
                    "position": [
                        -510.4015197753906,
                        -137.80633544921875,
                        189.51437377929688
                    ],
                    "transform": [
                        1.2608652114868164,
                        0.4874362051486969,
                        -3.471627712249756,
                        -506.76629638671875,
                        -2.5600924491882324,
                        1.819745421409607,
                        -0.9373252987861633,
                        -136.8248291015625,
                        -1.5341877937316895,
                        -2.6360039710998535,
                        -1.289030909538269,
                        -188.16458129882812
                    ],
                    "scale": [
                        3.2399978637695312,
                        3.2399978637695312,
                        3.8199973106384277
                    ],
                    "rotation": -0.7799997925758362,
                    "weight": [
                        0,
                        0,
                        0,
                        0
                    ],
                    "weightHard": false,
                    "weightScale": [
                        1,
                        1,
                        1
                    ],
                    "mirrored": true,
                    "twinId": 4,
                    "pathable": false,
                    "flooded": false,
                    "mergeable": false,
                    "no_features": false
                },
                {
                    "proj": "BP_Bend",
                    "spec": "/pa/terrain/jungle/brushes/jungle_plateau_01.json",
                    "height": 561.5977172851562,
                    "op": "BO_Add",
                    "position": [
                        -517.6436157226562,
                        -118.65091705322266,
                        182.64459228515625
                    ],
                    "transform": [
                        -0.7618637084960938,
                        -0.40929293632507324,
                        -1.8065974712371826,
                        -517.6436157226562,
                        1.8714287281036377,
                        -1.1174414157867432,
                        -0.4140965938568115,
                        -118.65091705322266,
                        -0.9435107707977295,
                        -1.8859212398529053,
                        0.6374371647834778,
                        182.6446075439453
                    ],
                    "scale": [
                        2.229998826980591,
                        2.229998826980591,
                        1.9599990844726562
                    ],
                    "rotation": 2.2599985599517822,
                    "weight": [
                        0,
                        0,
                        0,
                        0
                    ],
                    "weightHard": false,
                    "weightScale": [
                        1,
                        1,
                        1
                    ],
                    "mirrored": false,
                    "twinId": 5,
                    "pathable": false,
                    "flooded": false,
                    "mergeable": false,
                    "no_features": false
                },
                {
                    "proj": "BP_Bend",
                    "spec": "/pa/terrain/jungle/brushes/jungle_plateau_01.json",
                    "height": 561.5977172851562,
                    "op": "BO_Add",
                    "position": [
                        -517.6436157226562,
                        -118.65091705322266,
                        182.64459228515625
                    ],
                    "transform": [
                        -0.7618637084960938,
                        -0.40929293632507324,
                        -1.8065974712371826,
                        -517.6436157226562,
                        1.8714287281036377,
                        -1.1174414157867432,
                        -0.4140965938568115,
                        -118.65091705322266,
                        0.9435107707977295,
                        1.8859212398529053,
                        -0.6374371647834778,
                        -182.6446075439453
                    ],
                    "scale": [
                        2.229998826980591,
                        2.229998826980591,
                        1.9599990844726562
                    ],
                    "rotation": 2.2599985599517822,
                    "weight": [
                        0,
                        0,
                        0,
                        0
                    ],
                    "weightHard": false,
                    "weightScale": [
                        1,
                        1,
                        1
                    ],
                    "mirrored": true,
                    "twinId": 5,
                    "pathable": false,
                    "flooded": false,
                    "mergeable": false,
                    "no_features": false
                }
            ],
            "metal_spots": [
                [
                    75.28276062011719,
                    -418.56903076171875,
                    342.4638977050781
                ],
                [
                    75.28276062011719,
                    -418.56903076171875,
                    -342.4638977050781
                ],
                [
                    81.49221801757812,
                    -369.0819091796875,
                    393.2029724121094
                ],
                [
                    81.49221801757812,
                    -369.0819091796875,
                    -393.2029724121094
                ],
                [
                    91.6044921875,
                    -455.6710205078125,
                    287.5762023925781
                ],
                [
                    91.6044921875,
                    -455.6710205078125,
                    -287.5762023925781
                ],
                [
                    -281.5985107421875,
                    -424.14990234375,
                    237.18411254882812
                ],
                [
                    -281.5985107421875,
                    -424.14990234375,
                    -237.18411254882812
                ],
                [
                    -234.93222045898438,
                    -453.6424560546875,
                    233.4479217529297
                ],
                [
                    -234.93222045898438,
                    -453.6424560546875,
                    -233.4479217529297
                ],
                [
                    -241.75482177734375,
                    -418.24664306640625,
                    286.5008239746094
                ],
                [
                    -241.75482177734375,
                    -418.24664306640625,
                    -286.5008239746094
                ],
                [
                    -479.5901794433594,
                    -170.4423370361328,
                    237.41439819335938
                ],
                [
                    -479.5901794433594,
                    -170.4423370361328,
                    -237.41439819335938
                ],
                [
                    -488.4698486328125,
                    -195.41888427734375,
                    196.5813751220703
                ],
                [
                    -488.4698486328125,
                    -195.41888427734375,
                    -196.5813751220703
                ],
                [
                    164.47950744628906,
                    -532.6019287109375,
                    51.02849578857422
                ],
                [
                    164.47950744628906,
                    -532.6019287109375,
                    -51.02849578857422
                ],
                [
                    170.25367736816406,
                    -532.87109375,
                    2.6057968139648438
                ],
                [
                    327.46893310546875,
                    332.24932861328125,
                    277.43536376953125
                ],
                [
                    327.46893310546875,
                    332.24932861328125,
                    -277.43536376953125
                ],
                [
                    254.496337890625,
                    392.3719482421875,
                    275.50701904296875
                ],
                [
                    254.496337890625,
                    392.3719482421875,
                    -275.50701904296875
                ],
                [
                    -132.33892822265625,
                    -544.745849609375,
                    32.611961364746094
                ],
                [
                    -132.33892822265625,
                    -544.745849609375,
                    -32.611961364746094
                ],
                [
                    -549.709716796875,
                    -115.05821228027344,
                    -1.1542549133300781
                ],
                [
                    -560.5697021484375,
                    -34.4600830078125,
                    1.4886398315429688
                ],
                [
                    -374.49298095703125,
                    162.22674560546875,
                    357.67022705078125
                ],
                [
                    -374.49298095703125,
                    162.22674560546875,
                    -357.67022705078125
                ],
                [
                    -415.4371337890625,
                    183.1505126953125,
                    297.3306884765625
                ],
                [
                    -415.4371337890625,
                    183.1505126953125,
                    -297.3306884765625
                ],
                [
                    -461.039794921875,
                    155.98193359375,
                    240.0164794921875
                ],
                [
                    -461.039794921875,
                    155.98193359375,
                    -240.0164794921875
                ],
                [
                    438.682373046875,
                    -319.44879150390625,
                    -2.19158935546875
                ],
                [
                    -360.61639404296875,
                    405.54541015625,
                    -2.853790283203125
                ],
                [
                    487.2783203125,
                    212.2197265625,
                    109.48583984375
                ],
                [
                    487.2783203125,
                    212.2197265625,
                    -109.48583984375
                ],
                [
                    119.42138671875,
                    517.741943359375,
                    109.77496337890625
                ],
                [
                    119.42138671875,
                    517.741943359375,
                    -109.77496337890625
                ],
                [
                    -286.38800048828125,
                    434.953369140625,
                    153.16268920898438
                ],
                [
                    -286.38800048828125,
                    434.953369140625,
                    -153.16268920898438
                ],
                [
                    -230.9498291015625,
                    491.1768798828125,
                    -0.800018310546875
                ],
                [
                    465.8775634765625,
                    -221.3248291015625,
                    168.72976684570312
                ],
                [
                    465.8775634765625,
                    -221.3248291015625,
                    -168.72976684570312
                ],
                [
                    -435.0870361328125,
                    -355.26922607421875,
                    -0.15140628814697266
                ],
                [
                    -368.5889892578125,
                    -423.85809326171875,
                    0.7985153198242188
                ],
                [
                    57.101104736328125,
                    237.1109161376953,
                    484.7425537109375
                ],
                [
                    57.101104736328125,
                    237.1109161376953,
                    -484.7425537109375
                ],
                [
                    -73.17411041259766,
                    173.27236938476562,
                    509.03692626953125
                ],
                [
                    -73.17411041259766,
                    173.27236938476562,
                    -509.03692626953125
                ],
                [
                    211.46823120117188,
                    68.40907287597656,
                    495.007568359375
                ],
                [
                    211.46823120117188,
                    68.40907287597656,
                    -495.007568359375
                ],
                [
                    139.41799926757812,
                    -62.639957427978516,
                    520.5925903320312
                ],
                [
                    139.41799926757812,
                    -62.639957427978516,
                    -520.5925903320312
                ],
                [
                    189.4752197265625,
                    -9.740467071533203,
                    508.3345947265625
                ],
                [
                    189.4752197265625,
                    -9.740467071533203,
                    -508.3345947265625
                ],
                [
                    -17.822568893432617,
                    220.68841552734375,
                    495.3804931640625
                ],
                [
                    -17.822568893432617,
                    220.68841552734375,
                    -495.3804931640625
                ],
                [
                    285.1575927734375,
                    -115.42717742919922,
                    447.1405029296875
                ],
                [
                    285.1575927734375,
                    -115.42717742919922,
                    -447.1405029296875
                ],
                [
                    329.3604736328125,
                    -47.63334655761719,
                    428.6976318359375
                ],
                [
                    329.3604736328125,
                    -47.63334655761719,
                    -428.6976318359375
                ],
                [
                    -55.1083984375,
                    352.945556640625,
                    408.55804443359375
                ],
                [
                    -55.1083984375,
                    352.945556640625,
                    -408.55804443359375
                ],
                [
                    -127.0125503540039,
                    316.410888671875,
                    422.24285888671875
                ],
                [
                    -127.0125503540039,
                    316.410888671875,
                    -422.24285888671875
                ],
                [
                    -107.91619873046875,
                    464.071044921875,
                    259.86602783203125
                ],
                [
                    -107.91619873046875,
                    464.071044921875,
                    -259.86602783203125
                ],
                [
                    473.7960205078125,
                    0.1647186279296875,
                    264.68359375
                ],
                [
                    473.7960205078125,
                    0.1647186279296875,
                    -264.68359375
                ],
                [
                    -53.99159240722656,
                    -130.9420623779297,
                    533.2463989257812
                ],
                [
                    -53.99159240722656,
                    -130.9420623779297,
                    -533.2463989257812
                ],
                [
                    -112.93598937988281,
                    -81.76792907714844,
                    532.4755859375
                ],
                [
                    -112.93598937988281,
                    -81.76792907714844,
                    -532.4755859375
                ],
                [
                    -156.0695343017578,
                    -19.222686767578125,
                    526.2415161132812
                ],
                [
                    -156.0695343017578,
                    -19.222686767578125,
                    -526.2415161132812
                ],
                [
                    -336.19091796875,
                    -196.7808380126953,
                    -404.7184753417969
                ],
                [
                    -336.19091796875,
                    -196.7808380126953,
                    404.7184753417969
                ],
                [
                    523.4109497070312,
                    -143.42581176757812,
                    1.9073257446289062
                ],
                [
                    310.82958984375,
                    -323.046875,
                    305.74267578125
                ],
                [
                    310.82958984375,
                    -323.046875,
                    -305.74267578125
                ]
            ],
            "landing_zones": {
                "list": [
                    [
                        53,
                        79,
                        550
                    ],
                    [
                        53,
                        79,
                        -550
                    ],
                    [
                        -313.75408935546875,
                        462.1678466796875,
                        -6.1923980712890625
                    ],
                    [
                        274.53369140625,
                        -57.130218505859375,
                        483.172119140625
                    ],
                    [
                        -61.486568450927734,
                        297.2315673828125,
                        468.9619140625
                    ],
                    [
                        255.41729736328125,
                        -47.192779541015625,
                        -494.6024169921875
                    ],
                    [
                        -69.60041809082031,
                        290.2677001953125,
                        -472.311767578125
                    ],
                    [
                        19.018096923828125,
                        -561.29345703125,
                        -0.7456588745117188
                    ],
                    [
                        77.66769409179688,
                        -438.5947265625,
                        337.1839599609375
                    ],
                    [
                        -432.2022705078125,
                        193.20947265625,
                        296.5106201171875
                    ],
                    [
                        -115.7034912109375,
                        -82.8752670288086,
                        540.26220703125
                    ],
                    [
                        76.07511901855469,
                        -428.759521484375,
                        -349.9654541015625
                    ],
                    [
                        -115.71891784667969,
                        -85.6337890625,
                        -539.7830810546875
                    ],
                    [
                        -426.141357421875,
                        190.71556091308594,
                        -306.9705810546875
                    ]
                ],
                "rules": [
                    {
                        "min": 2,
                        "max": 3
                    },
                    {
                        "min": 2,
                        "max": 3
                    },
                    {
                        "min": 3,
                        "max": 3
                    },
                    {
                        "min": 4,
                        "max": 5
                    },
                    {
                        "min": 4,
                        "max": 5
                    },
                    {
                        "min": 4,
                        "max": 5
                    },
                    {
                        "min": 4,
                        "max": 5
                    },
                    {
                        "min": 5,
                        "max": 5
                    },
                    {
                        "min": 6,
                        "max": 6
                    },
                    {
                        "min": 6,
                        "max": 6
                    },
                    {
                        "min": 6,
                        "max": 6
                    },
                    {
                        "min": 6,
                        "max": 6
                    },
                    {
                        "min": 6,
                        "max": 6
                    },
                    {
                        "min": 6,
                        "max": 6
                    }
                ]
            },
            "planet": {
                "seed": 1640344448,
                "radius": 550,
                "heightRange": 35,
                "waterHeight": 60.000003814697266,
                "waterDepth": 100,
                "temperature": 80,
                "metalDensity": 0,
                "metalClusters": 0,
                "metalSpotLimit": -1,
                "biomeScale": 50,
                "biome": "tropical",
                "symmetryType": "terrain and CSG",
                "symmetricalMetal": true,
                "symmetricalStarts": false,
                "numArmies": 2,
                "landingZonesPerArmy": 0,
                "landingZoneSize": 175,
                "heightAdjustments": [
                    {
                        "pos": [
                            0,
                            550,
                            0
                        ],
                        "normalizedAdjustment": -1,
                        "radius": 10000,
                        "adjustment": -59
                    },
                    {
                        "pos": [
                            550,
                            0,
                            0
                        ],
                        "normalizedAdjustment": -1,
                        "radius": 10000,
                        "adjustment": -59
                    },
                    {
                        "pos": [
                            0,
                            0,
                            550
                        ],
                        "normalizedAdjustment": -1,
                        "radius": 10000,
                        "adjustment": -59
                    },
                    {
                        "pos": [
                            0,
                            0,
                            550
                        ],
                        "normalizedAdjustment": -1,
                        "radius": 10000,
                        "adjustment": -59
                    },
                    {
                        "pos": [
                            -215,
                            -244,
                            453
                        ],
                        "normalizedAdjustment": 0.30000001192092896,
                        "radius": 400,
                        "adjustment": 17.700000762939453
                    },
                    {
                        "pos": [
                            -215,
                            -244,
                            453
                        ],
                        "normalizedAdjustment": 0.30000001192092896,
                        "radius": 400,
                        "adjustment": 17.700000762939453
                    },
                    {
                        "pos": [
                            -215,
                            -244,
                            453
                        ],
                        "normalizedAdjustment": 0.30000001192092896,
                        "radius": 400,
                        "adjustment": 17.700000762939453
                    },
                    {
                        "pos": [
                            -215,
                            -244,
                            453
                        ],
                        "normalizedAdjustment": 0.30000001192092896,
                        "radius": 400,
                        "adjustment": 17.700000762939453
                    },
                    {
                        "pos": [
                            -215,
                            -244,
                            453
                        ],
                        "normalizedAdjustment": 0.30000001192092896,
                        "radius": 400,
                        "adjustment": 17.700000762939453
                    },
                    {
                        "pos": [
                            -215,
                            -244,
                            453
                        ],
                        "normalizedAdjustment": 0.30000001192092896,
                        "radius": 400,
                        "adjustment": 17.700000762939453
                    },
                    {
                        "pos": [
                            -369,
                            -401,
                            135
                        ],
                        "normalizedAdjustment": 0.20000000298023224,
                        "radius": 500,
                        "adjustment": 11.800000190734863
                    },
                    {
                        "pos": [
                            -369,
                            -401,
                            135
                        ],
                        "normalizedAdjustment": 0.20000000298023224,
                        "radius": 500,
                        "adjustment": 11.800000190734863
                    },
                    {
                        "pos": [
                            -369,
                            -401,
                            135
                        ],
                        "normalizedAdjustment": 0.20000000298023224,
                        "radius": 500,
                        "adjustment": 11.800000190734863
                    },
                    {
                        "pos": [
                            -369,
                            -401,
                            135
                        ],
                        "normalizedAdjustment": 0.20000000298023224,
                        "radius": 500,
                        "adjustment": 11.800000190734863
                    },
                    {
                        "pos": [
                            -369,
                            -401,
                            135
                        ],
                        "normalizedAdjustment": 0.20000000298023224,
                        "radius": 500,
                        "adjustment": 11.800000190734863
                    },
                    {
                        "pos": [
                            -369,
                            -401,
                            135
                        ],
                        "normalizedAdjustment": 0.20000000298023224,
                        "radius": 500,
                        "adjustment": 11.800000190734863
                    },
                    {
                        "pos": [
                            -369,
                            -401,
                            135
                        ],
                        "normalizedAdjustment": 0.20000000298023224,
                        "radius": 500,
                        "adjustment": 11.800000190734863
                    },
                    {
                        "pos": [
                            -369,
                            -401,
                            135
                        ],
                        "normalizedAdjustment": 0.20000000298023224,
                        "radius": 500,
                        "adjustment": 11.800000190734863
                    },
                    {
                        "pos": [
                            -369,
                            -401,
                            135
                        ],
                        "normalizedAdjustment": 0.20000000298023224,
                        "radius": 500,
                        "adjustment": 11.800000190734863
                    },
                    {
                        "pos": [
                            -369,
                            -401,
                            135
                        ],
                        "normalizedAdjustment": 0.20000000298023224,
                        "radius": 500,
                        "adjustment": 11.800000190734863
                    },
                    {
                        "pos": [
                            -153,
                            -540,
                            0
                        ],
                        "normalizedAdjustment": 0.20000000298023224,
                        "radius": 475,
                        "adjustment": 11.800000190734863
                    },
                    {
                        "pos": [
                            -153,
                            -540,
                            0
                        ],
                        "normalizedAdjustment": 0.20000000298023224,
                        "radius": 475,
                        "adjustment": 11.800000190734863
                    },
                    {
                        "pos": [
                            -153,
                            -540,
                            0
                        ],
                        "normalizedAdjustment": 0.20000000298023224,
                        "radius": 475,
                        "adjustment": 11.800000190734863
                    },
                    {
                        "pos": [
                            -153,
                            -540,
                            0
                        ],
                        "normalizedAdjustment": 0.20000000298023224,
                        "radius": 475,
                        "adjustment": 11.800000190734863
                    },
                    {
                        "pos": [
                            -153,
                            -540,
                            0
                        ],
                        "normalizedAdjustment": 0.20000000298023224,
                        "radius": 475,
                        "adjustment": 11.800000190734863
                    },
                    {
                        "pos": [
                            -153,
                            -540,
                            0
                        ],
                        "normalizedAdjustment": 0.20000000298023224,
                        "radius": 475,
                        "adjustment": 11.800000190734863
                    },
                    {
                        "pos": [
                            -153,
                            -540,
                            0
                        ],
                        "normalizedAdjustment": 0.20000000298023224,
                        "radius": 475,
                        "adjustment": 11.800000190734863
                    },
                    {
                        "pos": [
                            -153,
                            -540,
                            0
                        ],
                        "normalizedAdjustment": 0.20000000298023224,
                        "radius": 475,
                        "adjustment": 11.800000190734863
                    },
                    {
                        "pos": [
                            -153,
                            -540,
                            0
                        ],
                        "normalizedAdjustment": 0.20000000298023224,
                        "radius": 475,
                        "adjustment": 11.800000190734863
                    },
                    {
                        "pos": [
                            -524,
                            -199,
                            0
                        ],
                        "normalizedAdjustment": 0.20000000298023224,
                        "radius": 475,
                        "adjustment": 11.800000190734863
                    },
                    {
                        "pos": [
                            -524,
                            -199,
                            0
                        ],
                        "normalizedAdjustment": 0.20000000298023224,
                        "radius": 475,
                        "adjustment": 11.800000190734863
                    },
                    {
                        "pos": [
                            -524,
                            -199,
                            0
                        ],
                        "normalizedAdjustment": 0.20000000298023224,
                        "radius": 475,
                        "adjustment": 11.800000190734863
                    },
                    {
                        "pos": [
                            -524,
                            -199,
                            0
                        ],
                        "normalizedAdjustment": 0.20000000298023224,
                        "radius": 475,
                        "adjustment": 11.800000190734863
                    },
                    {
                        "pos": [
                            -524,
                            -199,
                            0
                        ],
                        "normalizedAdjustment": 0.20000000298023224,
                        "radius": 475,
                        "adjustment": 11.800000190734863
                    },
                    {
                        "pos": [
                            -524,
                            -199,
                            0
                        ],
                        "normalizedAdjustment": 0.20000000298023224,
                        "radius": 475,
                        "adjustment": 11.800000190734863
                    },
                    {
                        "pos": [
                            -524,
                            -199,
                            0
                        ],
                        "normalizedAdjustment": 0.20000000298023224,
                        "radius": 475,
                        "adjustment": 11.800000190734863
                    },
                    {
                        "pos": [
                            -524,
                            -199,
                            0
                        ],
                        "normalizedAdjustment": 0.20000000298023224,
                        "radius": 475,
                        "adjustment": 11.800000190734863
                    },
                    {
                        "pos": [
                            -524,
                            -199,
                            0
                        ],
                        "normalizedAdjustment": 0.20000000298023224,
                        "radius": 475,
                        "adjustment": 11.800000190734863
                    },
                    {
                        "pos": [
                            -70,
                            -260,
                            480
                        ],
                        "normalizedAdjustment": 0.20000000298023224,
                        "radius": 225,
                        "adjustment": 11.800000190734863
                    },
                    {
                        "pos": [
                            -70,
                            -260,
                            480
                        ],
                        "normalizedAdjustment": 0.20000000298023224,
                        "radius": 225,
                        "adjustment": 11.800000190734863
                    },
                    {
                        "pos": [
                            -70,
                            -260,
                            480
                        ],
                        "normalizedAdjustment": 0.20000000298023224,
                        "radius": 225,
                        "adjustment": 11.800000190734863
                    },
                    {
                        "pos": [
                            -70,
                            -260,
                            480
                        ],
                        "normalizedAdjustment": 0.20000000298023224,
                        "radius": 225,
                        "adjustment": 11.800000190734863
                    },
                    {
                        "pos": [
                            -70,
                            -260,
                            480
                        ],
                        "normalizedAdjustment": 0.20000000298023224,
                        "radius": 225,
                        "adjustment": 11.800000190734863
                    },
                    {
                        "pos": [
                            -70,
                            -260,
                            480
                        ],
                        "normalizedAdjustment": 0.20000000298023224,
                        "radius": 225,
                        "adjustment": 11.800000190734863
                    },
                    {
                        "pos": [
                            -293,
                            26,
                            474
                        ],
                        "normalizedAdjustment": 0.20000000298023224,
                        "radius": 225,
                        "adjustment": 11.800000190734863
                    },
                    {
                        "pos": [
                            -293,
                            26,
                            474
                        ],
                        "normalizedAdjustment": 0.20000000298023224,
                        "radius": 225,
                        "adjustment": 11.800000190734863
                    },
                    {
                        "pos": [
                            -293,
                            26,
                            474
                        ],
                        "normalizedAdjustment": 0.20000000298023224,
                        "radius": 225,
                        "adjustment": 11.800000190734863
                    },
                    {
                        "pos": [
                            -293,
                            26,
                            474
                        ],
                        "normalizedAdjustment": 0.20000000298023224,
                        "radius": 225,
                        "adjustment": 11.800000190734863
                    },
                    {
                        "pos": [
                            -293,
                            26,
                            474
                        ],
                        "normalizedAdjustment": 0.20000000298023224,
                        "radius": 225,
                        "adjustment": 11.800000190734863
                    },
                    {
                        "pos": [
                            -293,
                            26,
                            474
                        ],
                        "normalizedAdjustment": 0.20000000298023224,
                        "radius": 225,
                        "adjustment": 11.800000190734863
                    },
                    {
                        "pos": [
                            -230,
                            80,
                            500
                        ],
                        "normalizedAdjustment": 0.2669999897480011,
                        "radius": 100,
                        "adjustment": 15.752999305725098
                    },
                    {
                        "pos": [
                            -230,
                            81,
                            500
                        ],
                        "normalizedAdjustment": 0.2669999897480011,
                        "radius": 100,
                        "adjustment": 15.752999305725098
                    },
                    {
                        "pos": [
                            -234,
                            19,
                            509
                        ],
                        "normalizedAdjustment": 0.15549999475479126,
                        "radius": 100,
                        "adjustment": 9.17449951171875
                    },
                    {
                        "pos": [
                            -234,
                            19,
                            509
                        ],
                        "normalizedAdjustment": 0.15549999475479126,
                        "radius": 100,
                        "adjustment": 9.17449951171875
                    },
                    {
                        "pos": [
                            -203,
                            -39,
                            522
                        ],
                        "normalizedAdjustment": 0.15000000596046448,
                        "radius": 100,
                        "adjustment": 8.850000381469727
                    },
                    {
                        "pos": [
                            -203,
                            -39,
                            522
                        ],
                        "normalizedAdjustment": 0.15000000596046448,
                        "radius": 100,
                        "adjustment": 8.850000381469727
                    },
                    {
                        "pos": [
                            -248,
                            88,
                            495
                        ],
                        "normalizedAdjustment": 0.14880000054836273,
                        "radius": 100,
                        "adjustment": 8.779199600219727
                    },
                    {
                        "pos": [
                            -248,
                            88,
                            495
                        ],
                        "normalizedAdjustment": 0.14880000054836273,
                        "radius": 100,
                        "adjustment": 8.779199600219727
                    },
                    {
                        "pos": [
                            -156,
                            -125,
                            520
                        ],
                        "normalizedAdjustment": 0.14959999918937683,
                        "radius": 100,
                        "adjustment": 8.826399803161621
                    },
                    {
                        "pos": [
                            -156,
                            -125,
                            520
                        ],
                        "normalizedAdjustment": 0.14959999918937683,
                        "radius": 100,
                        "adjustment": 8.826399803161621
                    },
                    {
                        "pos": [
                            -86,
                            -177,
                            525
                        ],
                        "normalizedAdjustment": 0.14925000071525574,
                        "radius": 100,
                        "adjustment": 8.805749893188477
                    },
                    {
                        "pos": [
                            -86,
                            -177,
                            525
                        ],
                        "normalizedAdjustment": 0.14925000071525574,
                        "radius": 100,
                        "adjustment": 8.805749893188477
                    },
                    {
                        "pos": [
                            -20,
                            -201,
                            520
                        ],
                        "normalizedAdjustment": 0.1550000011920929,
                        "radius": 100,
                        "adjustment": 9.145000457763672
                    },
                    {
                        "pos": [
                            -20,
                            -201,
                            520
                        ],
                        "normalizedAdjustment": 0.1550000011920929,
                        "radius": 100,
                        "adjustment": 9.145000457763672
                    },
                    {
                        "pos": [
                            31,
                            -218,
                            516
                        ],
                        "normalizedAdjustment": 0.14980000257492065,
                        "radius": 100,
                        "adjustment": 8.838200569152832
                    },
                    {
                        "pos": [
                            31,
                            -218,
                            516
                        ],
                        "normalizedAdjustment": 0.14980000257492065,
                        "radius": 100,
                        "adjustment": 8.838200569152832
                    },
                    {
                        "pos": [
                            53,
                            79,
                            550
                        ],
                        "normalizedAdjustment": -0.30000001192092896,
                        "radius": 250,
                        "adjustment": -17.700000762939453
                    },
                    {
                        "pos": [
                            53,
                            79,
                            550
                        ],
                        "normalizedAdjustment": -0.30000001192092896,
                        "radius": 250,
                        "adjustment": -17.700000762939453
                    },
                    {
                        "pos": [
                            53,
                            79,
                            550
                        ],
                        "normalizedAdjustment": -0.30000001192092896,
                        "radius": 250,
                        "adjustment": -17.700000762939453
                    },
                    {
                        "pos": [
                            53,
                            79,
                            550
                        ],
                        "normalizedAdjustment": 0.5,
                        "radius": 100,
                        "adjustment": 29.5
                    },
                    {
                        "pos": [
                            53,
                            79,
                            550
                        ],
                        "normalizedAdjustment": 0.5,
                        "radius": 100,
                        "adjustment": 29.5
                    },
                    {
                        "pos": [
                            53,
                            79,
                            550
                        ],
                        "normalizedAdjustment": 0.5,
                        "radius": 150,
                        "adjustment": 29.5
                    },
                    {
                        "pos": [
                            53,
                            79,
                            550
                        ],
                        "normalizedAdjustment": 0.5,
                        "radius": 150,
                        "adjustment": 29.5
                    }
                ]
            }
        }
    ]
}